<?xml version="1.0"?>
<opencv_storage>
<cascade>
  <stageType>BOOST</stageType>
  <featureType>HAAR</featureType>
  <height>16</height>
  <width>32</width>
  <stageParams>
    <boostType>GAB</boostType>
    <minHitRate>9.8000001907348633e-01</minHitRate>
    <maxFalseAlarm>7.9999998211860657e-02</maxFalseAlarm>
    <weightTrimRate>9.4999998807907104e-01</weightTrimRate>
    <maxDepth>1</maxDepth>
    <maxWeakCount>80</maxWeakCount></stageParams>
  <featureParams>
    <maxCatCount>0</maxCatCount>
    <featSize>1</featSize>
    <mode>BASIC</mode></featureParams>
  <stageNum>1</stageNum>
  <stages>
    <!-- stage 0 -->
    <_>
      <maxWeakCount>4</maxWeakCount>
      <stageThreshold>-1.3479575514793396e-01</stageThreshold>
      <weakClassifiers>
        <_>
          <internalNodes>
            0 -1 3 -1.6598649322986603e-02</internalNodes>
          <leafValues>
            8.2496780157089233e-01 -8.7730062007904053e-01</leafValues></_>
        <_>
          <internalNodes>
            0 -1 1 6.9456607103347778e-02</internalNodes>
          <leafValues>
            -8.7258332967758179e-01 8.4669119119644165e-01</leafValues></_>
        <_>
          <internalNodes>
            0 -1 2 1.3042861595749855e-02</internalNodes>
          <leafValues>
            -7.4035346508026123e-01 7.6747179031372070e-01</leafValues></_>
        <_>
          <internalNodes>
            0 -1 0 -8.3182234084233642e-04</internalNodes>
          <leafValues>
            6.5317320823669434e-01 -8.7734586000442505e-01</leafValues></_></weakClassifiers></_></stages>
  <features>
    <_>
      <rects>
        <_>
          15 8 4 2 -1.</_>
        <_>
          15 8 2 1 2.</_>
        <_>
          17 9 2 1 2.</_></rects>
      <tilted>0</tilted></_>
    <_>
      <rects>
        <_>
          17 7 9 6 -1.</_>
        <_>
          20 7 3 6 3.</_></rects>
      <tilted>0</tilted></_>
    <_>
      <rects>
        <_>
          20 2 3 8 -1.</_>
        <_>
          20 6 3 4 2.</_></rects>
      <tilted>0</tilted></_>
    <_>
      <rects>
        <_>
          28 0 4 8 -1.</_>
        <_>
          28 0 2 4 2.</_>
        <_>
          30 4 2 4 2.</_></rects>
      <tilted>0</tilted></_></features></cascade>
</opencv_storage>
