<?xml version="1.0"?>
<opencv_storage>
<cascade>
  <stageType>BOOST</stageType>
  <featureType>HAAR</featureType>
  <height>16</height>
  <width>32</width>
  <stageParams>
    <boostType>GAB</boostType>
    <minHitRate>9.8000001907348633e-01</minHitRate>
    <maxFalseAlarm>2.0000000298023224e-01</maxFalseAlarm>
    <weightTrimRate>9.9500000476837158e-01</weightTrimRate>
    <maxDepth>1</maxDepth>
    <maxWeakCount>80</maxWeakCount></stageParams>
  <featureParams>
    <maxCatCount>0</maxCatCount>
    <featSize>1</featSize>
    <mode>BASIC</mode></featureParams>
  <stageNum>1</stageNum>
  <stages>
    <!-- stage 0 -->
    <_>
      <maxWeakCount>4</maxWeakCount>
      <stageThreshold>3.0908612534403801e-02</stageThreshold>
      <weakClassifiers>
        <_>
          <internalNodes>
            0 -1 2 -3.8514360785484314e-02</internalNodes>
          <leafValues>
            8.3406114578247070e-01 -8.4543323516845703e-01</leafValues></_>
        <_>
          <internalNodes>
            0 -1 0 6.7111238837242126e-02</internalNodes>
          <leafValues>
            -7.6031386852264404e-01 8.0137014389038086e-01</leafValues></_>
        <_>
          <internalNodes>
            0 -1 3 -6.3870698213577271e-02</internalNodes>
          <leafValues>
            7.5036054849624634e-01 -5.8855813741683960e-01</leafValues></_>
        <_>
          <internalNodes>
            0 -1 1 -3.9413478225469589e-04</internalNodes>
          <leafValues>
            6.6352987289428711e-01 -6.3593596220016479e-01</leafValues></_></weakClassifiers></_></stages>
  <features>
    <_>
      <rects>
        <_>
          6 8 21 8 -1.</_>
        <_>
          13 8 7 8 3.</_></rects>
      <tilted>0</tilted></_>
    <_>
      <rects>
        <_>
          15 8 2 1 -1.</_>
        <_>
          16 8 1 1 2.</_></rects>
      <tilted>0</tilted></_>
    <_>
      <rects>
        <_>
          17 0 6 8 -1.</_>
        <_>
          17 4 6 4 2.</_></rects>
      <tilted>0</tilted></_>
    <_>
      <rects>
        <_>
          21 0 5 14 -1.</_>
        <_>
          21 7 5 7 2.</_></rects>
      <tilted>0</tilted></_></features></cascade>
</opencv_storage>
