<?xml version="1.0"?>
<opencv_storage>
<cascade>
  <stageType>BOOST</stageType>
  <featureType>HAAR</featureType>
  <height>16</height>
  <width>32</width>
  <stageParams>
    <boostType>GAB</boostType>
    <minHitRate>9.8000001907348633e-01</minHitRate>
    <maxFalseAlarm>7.9999998211860657e-02</maxFalseAlarm>
    <weightTrimRate>9.4999998807907104e-01</weightTrimRate>
    <maxDepth>1</maxDepth>
    <maxWeakCount>80</maxWeakCount></stageParams>
  <featureParams>
    <maxCatCount>0</maxCatCount>
    <featSize>1</featSize>
    <mode>BASIC</mode></featureParams>
  <stageNum>1</stageNum>
  <stages>
    <!-- stage 0 -->
    <_>
      <maxWeakCount>3</maxWeakCount>
      <stageThreshold>3.2532545924186707e-01</stageThreshold>
      <weakClassifiers>
        <_>
          <internalNodes>
            0 -1 0 -6.8763509392738342e-02</internalNodes>
          <leafValues>
            8.1388890743255615e-01 -8.4171122312545776e-01</leafValues></_>
        <_>
          <internalNodes>
            0 -1 2 1.1302281636744738e-03</internalNodes>
          <leafValues>
            -9.4288891553878784e-01 6.2210416793823242e-01</leafValues></_>
        <_>
          <internalNodes>
            0 -1 1 3.6235147854313254e-04</internalNodes>
          <leafValues>
            -9.1526895761489868e-01 5.4493248462677002e-01</leafValues></_></weakClassifiers></_></stages>
  <features>
    <_>
      <rects>
        <_>
          15 0 4 10 -1.</_>
        <_>
          15 5 4 5 2.</_></rects>
      <tilted>0</tilted></_>
    <_>
      <rects>
        <_>
          15 7 6 1 -1.</_>
        <_>
          18 7 3 1 2.</_></rects>
      <tilted>0</tilted></_>
    <_>
      <rects>
        <_>
          15 8 3 1 -1.</_>
        <_>
          16 8 1 1 3.</_></rects>
      <tilted>0</tilted></_></features></cascade>
</opencv_storage>
