<?xml version="1.0"?>
<opencv_storage>
<cascade>
  <stageType>BOOST</stageType>
  <featureType>HAAR</featureType>
  <height>16</height>
  <width>32</width>
  <stageParams>
    <boostType>GAB</boostType>
    <minHitRate>9.8000001907348633e-01</minHitRate>
    <maxFalseAlarm>7.9999998211860657e-02</maxFalseAlarm>
    <weightTrimRate>9.4999998807907104e-01</weightTrimRate>
    <maxDepth>1</maxDepth>
    <maxWeakCount>80</maxWeakCount></stageParams>
  <featureParams>
    <maxCatCount>0</maxCatCount>
    <featSize>1</featSize>
    <mode>BASIC</mode></featureParams>
  <stageNum>1</stageNum>
  <stages>
    <!-- stage 0 -->
    <_>
      <maxWeakCount>4</maxWeakCount>
      <stageThreshold>-2.3613928258419037e-01</stageThreshold>
      <weakClassifiers>
        <_>
          <internalNodes>
            0 -1 0 -4.1507459245622158e-03</internalNodes>
          <leafValues>
            7.9608941078186035e-01 -8.4490740299224854e-01</leafValues></_>
        <_>
          <internalNodes>
            0 -1 3 -1.8081691814586520e-04</internalNodes>
          <leafValues>
            9.0579962730407715e-01 -6.5136647224426270e-01</leafValues></_>
        <_>
          <internalNodes>
            0 -1 1 2.8949476778507233e-02</internalNodes>
          <leafValues>
            -9.4794231653213501e-01 6.5772348642349243e-01</leafValues></_>
        <_>
          <internalNodes>
            0 -1 2 -1.0481415316462517e-02</internalNodes>
          <leafValues>
            6.0241109132766724e-01 -8.9850729703903198e-01</leafValues></_></weakClassifiers></_></stages>
  <features>
    <_>
      <rects>
        <_>
          0 0 6 1 -1.</_>
        <_>
          2 0 2 1 3.</_></rects>
      <tilted>0</tilted></_>
    <_>
      <rects>
        <_>
          11 4 8 12 -1.</_>
        <_>
          11 10 8 6 2.</_></rects>
      <tilted>0</tilted></_>
    <_>
      <rects>
        <_>
          11 8 6 5 -1.</_>
        <_>
          14 8 3 5 2.</_></rects>
      <tilted>0</tilted></_>
    <_>
      <rects>
        <_>
          29 14 2 2 -1.</_>
        <_>
          30 14 1 2 2.</_></rects>
      <tilted>0</tilted></_></features></cascade>
</opencv_storage>
