<?xml version="1.0"?>
<opencv_storage>
<cascade>
  <stageType>BOOST</stageType>
  <featureType>HAAR</featureType>
  <height>16</height>
  <width>32</width>
  <stageParams>
    <boostType>GAB</boostType>
    <minHitRate>9.8000001907348633e-01</minHitRate>
    <maxFalseAlarm>2.0000000298023224e-01</maxFalseAlarm>
    <weightTrimRate>9.9500000476837158e-01</weightTrimRate>
    <maxDepth>1</maxDepth>
    <maxWeakCount>80</maxWeakCount></stageParams>
  <featureParams>
    <maxCatCount>0</maxCatCount>
    <featSize>1</featSize>
    <mode>BASIC</mode></featureParams>
  <stageNum>1</stageNum>
  <stages>
    <!-- stage 0 -->
    <_>
      <maxWeakCount>3</maxWeakCount>
      <stageThreshold>4.4590133428573608e-01</stageThreshold>
      <weakClassifiers>
        <_>
          <internalNodes>
            0 -1 0 5.6020960211753845e-02</internalNodes>
          <leafValues>
            -9.2900431156158447e-01 8.4929180145263672e-01</leafValues></_>
        <_>
          <internalNodes>
            0 -1 1 -1.1754745990037918e-01</internalNodes>
          <leafValues>
            7.0362412929534912e-01 -7.6976376771926880e-01</leafValues></_>
        <_>
          <internalNodes>
            0 -1 2 6.2687892932444811e-04</internalNodes>
          <leafValues>
            -7.7449417114257812e-01 6.7128157615661621e-01</leafValues></_></weakClassifiers></_></stages>
  <features>
    <_>
      <rects>
        <_>
          10 7 10 6 -1.</_>
        <_>
          10 10 10 3 2.</_></rects>
      <tilted>0</tilted></_>
    <_>
      <rects>
        <_>
          14 0 18 16 -1.</_>
        <_>
          20 0 6 16 3.</_></rects>
      <tilted>0</tilted></_>
    <_>
      <rects>
        <_>
          16 9 2 2 -1.</_>
        <_>
          16 10 2 1 2.</_></rects>
      <tilted>0</tilted></_></features></cascade>
</opencv_storage>
