<?xml version="1.0"?>
<opencv_storage>
<cascade>
  <stageType>BOOST</stageType>
  <featureType>HAAR</featureType>
  <height>16</height>
  <width>32</width>
  <stageParams>
    <boostType>GAB</boostType>
    <minHitRate>9.8000001907348633e-01</minHitRate>
    <maxFalseAlarm>7.9999998211860657e-02</maxFalseAlarm>
    <weightTrimRate>9.4999998807907104e-01</weightTrimRate>
    <maxDepth>1</maxDepth>
    <maxWeakCount>80</maxWeakCount></stageParams>
  <featureParams>
    <maxCatCount>0</maxCatCount>
    <featSize>1</featSize>
    <mode>BASIC</mode></featureParams>
  <stageNum>1</stageNum>
  <stages>
    <!-- stage 0 -->
    <_>
      <maxWeakCount>3</maxWeakCount>
      <stageThreshold>3.5533750057220459e-01</stageThreshold>
      <weakClassifiers>
        <_>
          <internalNodes>
            0 -1 2 -4.0647275745868683e-02</internalNodes>
          <leafValues>
            8.1523096561431885e-01 -9.0595608949661255e-01</leafValues></_>
        <_>
          <internalNodes>
            0 -1 0 -3.1656749546527863e-02</internalNodes>
          <leafValues>
            6.2511235475540161e-01 -8.5308682918548584e-01</leafValues></_>
        <_>
          <internalNodes>
            0 -1 1 -4.8603910952806473e-02</internalNodes>
          <leafValues>
            6.3618123531341553e-01 -8.5621857643127441e-01</leafValues></_></weakClassifiers></_></stages>
  <features>
    <_>
      <rects>
        <_>
          0 9 12 4 -1.</_>
        <_>
          6 9 6 4 2.</_></rects>
      <tilted>0</tilted></_>
    <_>
      <rects>
        <_>
          0 10 29 6 -1.</_>
        <_>
          0 13 29 3 2.</_></rects>
      <tilted>0</tilted></_>
    <_>
      <rects>
        <_>
          6 6 22 2 -1.</_>
        <_>
          17 6 11 2 2.</_></rects>
      <tilted>0</tilted></_></features></cascade>
</opencv_storage>
