<?xml version="1.0"?>
<opencv_storage>
<cascade>
  <stageType>BOOST</stageType>
  <featureType>HAAR</featureType>
  <height>16</height>
  <width>32</width>
  <stageParams>
    <boostType>GAB</boostType>
    <minHitRate>9.8000001907348633e-01</minHitRate>
    <maxFalseAlarm>2.0000000298023224e-01</maxFalseAlarm>
    <weightTrimRate>9.9500000476837158e-01</weightTrimRate>
    <maxDepth>1</maxDepth>
    <maxWeakCount>80</maxWeakCount></stageParams>
  <featureParams>
    <maxCatCount>0</maxCatCount>
    <featSize>1</featSize>
    <mode>BASIC</mode></featureParams>
  <stageNum>1</stageNum>
  <stages>
    <!-- stage 0 -->
    <_>
      <maxWeakCount>2</maxWeakCount>
      <stageThreshold>-1.1005137115716934e-02</stageThreshold>
      <weakClassifiers>
        <_>
          <internalNodes>
            0 -1 1 -4.8144929111003876e-02</internalNodes>
          <leafValues>
            9.0721005201339722e-01 -8.2893687486648560e-01</leafValues></_>
        <_>
          <internalNodes>
            0 -1 0 -9.5550164580345154e-02</internalNodes>
          <leafValues>
            8.1793171167373657e-01 -8.6043477058410645e-01</leafValues></_></weakClassifiers></_></stages>
  <features>
    <_>
      <rects>
        <_>
          0 3 26 12 -1.</_>
        <_>
          13 3 13 12 2.</_></rects>
      <tilted>0</tilted></_>
    <_>
      <rects>
        <_>
          15 5 17 8 -1.</_>
        <_>
          15 9 17 4 2.</_></rects>
      <tilted>0</tilted></_></features></cascade>
</opencv_storage>
