<?xml version="1.0"?>
<opencv_storage>
<cascade>
  <stageType>BOOST</stageType>
  <featureType>HAAR</featureType>
  <height>16</height>
  <width>32</width>
  <stageParams>
    <boostType>GAB</boostType>
    <minHitRate>9.8000001907348633e-01</minHitRate>
    <maxFalseAlarm>2.0000000298023224e-01</maxFalseAlarm>
    <weightTrimRate>9.9500000476837158e-01</weightTrimRate>
    <maxDepth>1</maxDepth>
    <maxWeakCount>80</maxWeakCount></stageParams>
  <featureParams>
    <maxCatCount>0</maxCatCount>
    <featSize>1</featSize>
    <mode>BASIC</mode></featureParams>
  <stageNum>1</stageNum>
  <stages>
    <!-- stage 0 -->
    <_>
      <maxWeakCount>5</maxWeakCount>
      <stageThreshold>-6.7633587121963501e-01</stageThreshold>
      <weakClassifiers>
        <_>
          <internalNodes>
            0 -1 2 7.3120281100273132e-02</internalNodes>
          <leafValues>
            -8.2186233997344971e-01 8.8454377651214600e-01</leafValues></_>
        <_>
          <internalNodes>
            0 -1 1 6.8879097700119019e-02</internalNodes>
          <leafValues>
            -3.9512974023818970e-01 9.1924893856048584e-01</leafValues></_>
        <_>
          <internalNodes>
            0 -1 4 -3.8704631151631474e-04</internalNodes>
          <leafValues>
            5.9346210956573486e-01 -6.1085873842239380e-01</leafValues></_>
        <_>
          <internalNodes>
            0 -1 3 -4.6635225415229797e-02</internalNodes>
          <leafValues>
            6.2317657470703125e-01 -4.8263651132583618e-01</leafValues></_>
        <_>
          <internalNodes>
            0 -1 0 -2.8151117730885744e-03</internalNodes>
          <leafValues>
            4.5519986748695374e-01 -6.7598247528076172e-01</leafValues></_></weakClassifiers></_></stages>
  <features>
    <_>
      <rects>
        <_>
          0 3 12 2 -1.</_>
        <_>
          6 3 6 2 2.</_></rects>
      <tilted>0</tilted></_>
    <_>
      <rects>
        <_>
          7 4 8 10 -1.</_>
        <_>
          11 4 4 10 2.</_></rects>
      <tilted>0</tilted></_>
    <_>
      <rects>
        <_>
          8 5 12 11 -1.</_>
        <_>
          12 5 4 11 3.</_></rects>
      <tilted>0</tilted></_>
    <_>
      <rects>
        <_>
          16 0 8 8 -1.</_>
        <_>
          16 4 8 4 2.</_></rects>
      <tilted>0</tilted></_>
    <_>
      <rects>
        <_>
          16 7 2 1 -1.</_>
        <_>
          17 7 1 1 2.</_></rects>
      <tilted>0</tilted></_></features></cascade>
</opencv_storage>
