<?xml version="1.0"?>
<opencv_storage>
<cascade>
  <stageType>BOOST</stageType>
  <featureType>HAAR</featureType>
  <height>16</height>
  <width>32</width>
  <stageParams>
    <boostType>GAB</boostType>
    <minHitRate>9.8000001907348633e-01</minHitRate>
    <maxFalseAlarm>7.9999998211860657e-02</maxFalseAlarm>
    <weightTrimRate>9.4999998807907104e-01</weightTrimRate>
    <maxDepth>1</maxDepth>
    <maxWeakCount>80</maxWeakCount></stageParams>
  <featureParams>
    <maxCatCount>0</maxCatCount>
    <featSize>1</featSize>
    <mode>BASIC</mode></featureParams>
  <stageNum>1</stageNum>
  <stages>
    <!-- stage 0 -->
    <_>
      <maxWeakCount>5</maxWeakCount>
      <stageThreshold>2.8356486558914185e-01</stageThreshold>
      <weakClassifiers>
        <_>
          <internalNodes>
            0 -1 0 8.8066138327121735e-02</internalNodes>
          <leafValues>
            -8.4551149606704712e-01 6.4679908752441406e-01</leafValues></_>
        <_>
          <internalNodes>
            0 -1 4 -1.8210414797067642e-02</internalNodes>
          <leafValues>
            8.3258444070816040e-01 -6.5166926383972168e-01</leafValues></_>
        <_>
          <internalNodes>
            0 -1 3 -1.5573715791106224e-03</internalNodes>
          <leafValues>
            -9.9178642034530640e-01 5.5539768934249878e-01</leafValues></_>
        <_>
          <internalNodes>
            0 -1 2 1.3531235163100064e-04</internalNodes>
          <leafValues>
            -6.2066191434860229e-01 7.1039766073226929e-01</leafValues></_>
        <_>
          <internalNodes>
            0 -1 1 -1.0322293383069336e-04</internalNodes>
          <leafValues>
            -9.9539643526077271e-01 5.1495027542114258e-01</leafValues></_></weakClassifiers></_></stages>
  <features>
    <_>
      <rects>
        <_>
          6 8 21 8 -1.</_>
        <_>
          6 12 21 4 2.</_></rects>
      <tilted>0</tilted></_>
    <_>
      <rects>
        <_>
          12 7 8 3 -1.</_>
        <_>
          16 7 4 3 2.</_></rects>
      <tilted>0</tilted></_>
    <_>
      <rects>
        <_>
          15 0 2 1 -1.</_>
        <_>
          16 0 1 1 2.</_></rects>
      <tilted>0</tilted></_>
    <_>
      <rects>
        <_>
          16 5 10 6 -1.</_>
        <_>
          21 5 5 6 2.</_></rects>
      <tilted>0</tilted></_>
    <_>
      <rects>
        <_>
          17 0 15 1 -1.</_>
        <_>
          22 0 5 1 3.</_></rects>
      <tilted>0</tilted></_></features></cascade>
</opencv_storage>
