<?xml version="1.0"?>
<opencv_storage>
<cascade>
  <stageType>BOOST</stageType>
  <featureType>HAAR</featureType>
  <height>16</height>
  <width>32</width>
  <stageParams>
    <boostType>GAB</boostType>
    <minHitRate>9.8000001907348633e-01</minHitRate>
    <maxFalseAlarm>7.9999998211860657e-02</maxFalseAlarm>
    <weightTrimRate>9.4999998807907104e-01</weightTrimRate>
    <maxDepth>1</maxDepth>
    <maxWeakCount>80</maxWeakCount></stageParams>
  <featureParams>
    <maxCatCount>0</maxCatCount>
    <featSize>1</featSize>
    <mode>BASIC</mode></featureParams>
  <stageNum>1</stageNum>
  <stages>
    <!-- stage 0 -->
    <_>
      <maxWeakCount>5</maxWeakCount>
      <stageThreshold>9.3819200992584229e-02</stageThreshold>
      <weakClassifiers>
        <_>
          <internalNodes>
            0 -1 3 -4.7745287418365479e-02</internalNodes>
          <leafValues>
            8.6838340759277344e-01 -8.1293535232543945e-01</leafValues></_>
        <_>
          <internalNodes>
            0 -1 0 -1.8690010905265808e-01</internalNodes>
          <leafValues>
            6.6030138731002808e-01 -9.0231096744537354e-01</leafValues></_>
        <_>
          <internalNodes>
            0 -1 4 1.7123121069744229e-03</internalNodes>
          <leafValues>
            -8.2198446989059448e-01 5.3466367721557617e-01</leafValues></_>
        <_>
          <internalNodes>
            0 -1 2 -5.1971450448036194e-02</internalNodes>
          <leafValues>
            5.0415623188018799e-01 -8.2814115285873413e-01</leafValues></_>
        <_>
          <internalNodes>
            0 -1 1 -1.3584187626838684e-01</internalNodes>
          <leafValues>
            6.3898020982742310e-01 -7.9236680269241333e-01</leafValues></_></weakClassifiers></_></stages>
  <features>
    <_>
      <rects>
        <_>
          6 0 19 16 -1.</_>
        <_>
          6 8 19 8 2.</_></rects>
      <tilted>0</tilted></_>
    <_>
      <rects>
        <_>
          6 0 25 6 -1.</_>
        <_>
          6 3 25 3 2.</_></rects>
      <tilted>0</tilted></_>
    <_>
      <rects>
        <_>
          9 0 16 12 -1.</_>
        <_>
          17 0 8 12 2.</_></rects>
      <tilted>0</tilted></_>
    <_>
      <rects>
        <_>
          13 0 8 6 -1.</_>
        <_>
          17 0 4 6 2.</_></rects>
      <tilted>0</tilted></_>
    <_>
      <rects>
        <_>
          19 7 2 4 -1.</_>
        <_>
          20 7 1 4 2.</_></rects>
      <tilted>0</tilted></_></features></cascade>
</opencv_storage>
