<?xml version="1.0"?>
<opencv_storage>
<cascade>
  <stageType>BOOST</stageType>
  <featureType>HAAR</featureType>
  <height>16</height>
  <width>32</width>
  <stageParams>
    <boostType>GAB</boostType>
    <minHitRate>9.8000001907348633e-01</minHitRate>
    <maxFalseAlarm>2.0000000298023224e-01</maxFalseAlarm>
    <weightTrimRate>9.9500000476837158e-01</weightTrimRate>
    <maxDepth>1</maxDepth>
    <maxWeakCount>80</maxWeakCount></stageParams>
  <featureParams>
    <maxCatCount>0</maxCatCount>
    <featSize>1</featSize>
    <mode>BASIC</mode></featureParams>
  <stageNum>1</stageNum>
  <stages>
    <!-- stage 0 -->
    <_>
      <maxWeakCount>4</maxWeakCount>
      <stageThreshold>-8.7001189589500427e-02</stageThreshold>
      <weakClassifiers>
        <_>
          <internalNodes>
            0 -1 3 6.2896959483623505e-02</internalNodes>
          <leafValues>
            -7.9428571462631226e-01 8.8416987657546997e-01</leafValues></_>
        <_>
          <internalNodes>
            0 -1 2 -4.7097131609916687e-03</internalNodes>
          <leafValues>
            8.2642078399658203e-01 -5.7868629693984985e-01</leafValues></_>
        <_>
          <internalNodes>
            0 -1 1 5.3035607561469078e-03</internalNodes>
          <leafValues>
            -8.6009919643402100e-01 5.5557268857955933e-01</leafValues></_>
        <_>
          <internalNodes>
            0 -1 0 5.3833141922950745e-02</internalNodes>
          <leafValues>
            -5.1559454202651978e-01 7.3039811849594116e-01</leafValues></_></weakClassifiers></_></stages>
  <features>
    <_>
      <rects>
        <_>
          4 4 22 8 -1.</_>
        <_>
          15 4 11 8 2.</_></rects>
      <tilted>0</tilted></_>
    <_>
      <rects>
        <_>
          12 6 2 10 -1.</_>
        <_>
          12 11 2 5 2.</_></rects>
      <tilted>0</tilted></_>
    <_>
      <rects>
        <_>
          17 0 10 3 -1.</_>
        <_>
          22 0 5 3 2.</_></rects>
      <tilted>0</tilted></_>
    <_>
      <rects>
        <_>
          19 4 12 8 -1.</_>
        <_>
          23 4 4 8 3.</_></rects>
      <tilted>0</tilted></_></features></cascade>
</opencv_storage>
