<?xml version="1.0"?>
<opencv_storage>
<cascade>
  <stageType>BOOST</stageType>
  <featureType>HAAR</featureType>
  <height>16</height>
  <width>32</width>
  <stageParams>
    <boostType>GAB</boostType>
    <minHitRate>9.8000001907348633e-01</minHitRate>
    <maxFalseAlarm>7.9999998211860657e-02</maxFalseAlarm>
    <weightTrimRate>9.4999998807907104e-01</weightTrimRate>
    <maxDepth>1</maxDepth>
    <maxWeakCount>80</maxWeakCount></stageParams>
  <featureParams>
    <maxCatCount>0</maxCatCount>
    <featSize>1</featSize>
    <mode>BASIC</mode></featureParams>
  <stageNum>1</stageNum>
  <stages>
    <!-- stage 0 -->
    <_>
      <maxWeakCount>3</maxWeakCount>
      <stageThreshold>4.0034872293472290e-01</stageThreshold>
      <weakClassifiers>
        <_>
          <internalNodes>
            0 -1 0 -1.9783236086368561e-01</internalNodes>
          <leafValues>
            9.1576087474822998e-01 -9.5637947320938110e-01</leafValues></_>
        <_>
          <internalNodes>
            0 -1 2 3.6656912416219711e-03</internalNodes>
          <leafValues>
            -8.8963115215301514e-01 6.9846314191818237e-01</leafValues></_>
        <_>
          <internalNodes>
            0 -1 1 -1.1061622947454453e-01</internalNodes>
          <leafValues>
            6.5826505422592163e-01 -9.6120679378509521e-01</leafValues></_></weakClassifiers></_></stages>
  <features>
    <_>
      <rects>
        <_>
          0 5 32 7 -1.</_>
        <_>
          16 5 16 7 2.</_></rects>
      <tilted>0</tilted></_>
    <_>
      <rects>
        <_>
          4 4 22 7 -1.</_>
        <_>
          15 4 11 7 2.</_></rects>
      <tilted>0</tilted></_>
    <_>
      <rects>
        <_>
          14 9 5 2 -1.</_>
        <_>
          14 10 5 1 2.</_></rects>
      <tilted>0</tilted></_></features></cascade>
</opencv_storage>
