<?xml version="1.0"?>
<opencv_storage>
<cascade>
  <stageType>BOOST</stageType>
  <featureType>HAAR</featureType>
  <height>16</height>
  <width>32</width>
  <stageParams>
    <boostType>GAB</boostType>
    <minHitRate>9.5999997854232788e-01</minHitRate>
    <maxFalseAlarm>2.0000000298023224e-01</maxFalseAlarm>
    <weightTrimRate>6.4999997615814209e-01</weightTrimRate>
    <maxDepth>1</maxDepth>
    <maxWeakCount>80</maxWeakCount></stageParams>
  <featureParams>
    <maxCatCount>0</maxCatCount>
    <featSize>1</featSize>
    <mode>BASIC</mode></featureParams>
  <stageNum>1</stageNum>
  <stages>
    <!-- stage 0 -->
    <_>
      <maxWeakCount>3</maxWeakCount>
      <stageThreshold>7.3322224617004395e-01</stageThreshold>
      <weakClassifiers>
        <_>
          <internalNodes>
            0 -1 0 8.7829053401947021e-02</internalNodes>
          <leafValues>
            -9.0364027023315430e-01 7.9174482822418213e-01</leafValues></_>
        <_>
          <internalNodes>
            0 -1 2 1.4877032954245806e-03</internalNodes>
          <leafValues>
            -9.2372059822082520e-01 8.2697623968124390e-01</leafValues></_>
        <_>
          <internalNodes>
            0 -1 1 -3.8290835916996002e-02</internalNodes>
          <leafValues>
            8.0988627672195435e-01 -8.7924283742904663e-01</leafValues></_></weakClassifiers></_></stages>
  <features>
    <_>
      <rects>
        <_>
          0 4 28 8 -1.</_>
        <_>
          14 4 14 8 2.</_></rects>
      <tilted>0</tilted></_>
    <_>
      <rects>
        <_>
          14 6 4 6 -1.</_>
        <_>
          14 9 4 3 2.</_></rects>
      <tilted>0</tilted></_>
    <_>
      <rects>
        <_>
          15 10 10 2 -1.</_>
        <_>
          20 10 5 2 2.</_></rects>
      <tilted>0</tilted></_></features></cascade>
</opencv_storage>
