<?xml version="1.0"?>
<opencv_storage>
<cascade>
  <stageType>BOOST</stageType>
  <featureType>HAAR</featureType>
  <height>16</height>
  <width>32</width>
  <stageParams>
    <boostType>GAB</boostType>
    <minHitRate>9.8000001907348633e-01</minHitRate>
    <maxFalseAlarm>2.0000000298023224e-01</maxFalseAlarm>
    <weightTrimRate>9.9500000476837158e-01</weightTrimRate>
    <maxDepth>1</maxDepth>
    <maxWeakCount>80</maxWeakCount></stageParams>
  <featureParams>
    <maxCatCount>0</maxCatCount>
    <featSize>1</featSize>
    <mode>BASIC</mode></featureParams>
  <stageNum>1</stageNum>
  <stages>
    <!-- stage 0 -->
    <_>
      <maxWeakCount>2</maxWeakCount>
      <stageThreshold>-2.2142406553030014e-02</stageThreshold>
      <weakClassifiers>
        <_>
          <internalNodes>
            0 -1 0 -5.4764278233051300e-02</internalNodes>
          <leafValues>
            8.7950384616851807e-01 -8.5466033220291138e-01</leafValues></_>
        <_>
          <internalNodes>
            0 -1 1 1.9261514768004417e-02</internalNodes>
          <leafValues>
            -7.6792776584625244e-01 8.3251792192459106e-01</leafValues></_></weakClassifiers></_></stages>
  <features>
    <_>
      <rects>
        <_>
          0 5 22 6 -1.</_>
        <_>
          0 5 11 3 2.</_>
        <_>
          11 8 11 3 2.</_></rects>
      <tilted>0</tilted></_>
    <_>
      <rects>
        <_>
          8 8 9 4 -1.</_>
        <_>
          8 10 9 2 2.</_></rects>
      <tilted>0</tilted></_></features></cascade>
</opencv_storage>
