<?xml version="1.0"?>
<opencv_storage>
<cascade>
  <stageType>BOOST</stageType>
  <featureType>HAAR</featureType>
  <height>16</height>
  <width>32</width>
  <stageParams>
    <boostType>GAB</boostType>
    <minHitRate>9.4999998807907104e-01</minHitRate>
    <maxFalseAlarm>2.0000000298023224e-01</maxFalseAlarm>
    <weightTrimRate>3.4999999403953552e-01</weightTrimRate>
    <maxDepth>1</maxDepth>
    <maxWeakCount>80</maxWeakCount></stageParams>
  <featureParams>
    <maxCatCount>0</maxCatCount>
    <featSize>1</featSize>
    <mode>BASIC</mode></featureParams>
  <stageNum>1</stageNum>
  <stages>
    <!-- stage 0 -->
    <_>
      <maxWeakCount>2</maxWeakCount>
      <stageThreshold>-5.1545351743698120e-01</stageThreshold>
      <weakClassifiers>
        <_>
          <internalNodes>
            0 -1 1 -2.0345592498779297e-01</internalNodes>
          <leafValues>
            6.6508686542510986e-01 -9.5763206481933594e-01</leafValues></_>
        <_>
          <internalNodes>
            0 -1 0 1.6189670562744141e-01</internalNodes>
          <leafValues>
            -9.8379874229431152e-01 4.4217854738235474e-01</leafValues></_></weakClassifiers></_></stages>
  <features>
    <_>
      <rects>
        <_>
          0 7 20 8 -1.</_>
        <_>
          10 7 10 8 2.</_></rects>
      <tilted>0</tilted></_>
    <_>
      <rects>
        <_>
          17 4 10 12 -1.</_>
        <_>
          17 10 10 6 2.</_></rects>
      <tilted>0</tilted></_></features></cascade>
</opencv_storage>
