<?xml version="1.0"?>
<opencv_storage>
<cascade>
  <stageType>BOOST</stageType>
  <featureType>HAAR</featureType>
  <height>16</height>
  <width>32</width>
  <stageParams>
    <boostType>GAB</boostType>
    <minHitRate>9.5999997854232788e-01</minHitRate>
    <maxFalseAlarm>2.0000000298023224e-01</maxFalseAlarm>
    <weightTrimRate>6.4999997615814209e-01</weightTrimRate>
    <maxDepth>1</maxDepth>
    <maxWeakCount>80</maxWeakCount></stageParams>
  <featureParams>
    <maxCatCount>0</maxCatCount>
    <featSize>1</featSize>
    <mode>BASIC</mode></featureParams>
  <stageNum>2</stageNum>
  <stages>
    <!-- stage 0 -->
    <_>
      <maxWeakCount>3</maxWeakCount>
      <stageThreshold>3.1757181882858276e-01</stageThreshold>
      <weakClassifiers>
        <_>
          <internalNodes>
            0 -1 2 1.0670900344848633e-01</internalNodes>
          <leafValues>
            -7.9690521955490112e-01 8.5300207138061523e-01</leafValues></_>
        <_>
          <internalNodes>
            0 -1 6 -2.5709804147481918e-02</internalNodes>
          <leafValues>
            3.2877561450004578e-01 -8.6375164985656738e-01</leafValues></_>
        <_>
          <internalNodes>
            0 -1 0 -3.1623467803001404e-02</internalNodes>
          <leafValues>
            7.8570139408111572e-01 -5.5027967691421509e-01</leafValues></_></weakClassifiers></_>
    <!-- stage 1 -->
    <_>
      <maxWeakCount>4</maxWeakCount>
      <stageThreshold>1.0365275666117668e-02</stageThreshold>
      <weakClassifiers>
        <_>
          <internalNodes>
            0 -1 1 7.0653721690177917e-02</internalNodes>
          <leafValues>
            -6.2566846609115601e-01 7.9954439401626587e-01</leafValues></_>
        <_>
          <internalNodes>
            0 -1 3 -3.6444707075133920e-04</internalNodes>
          <leafValues>
            5.6205922365188599e-01 -6.8301922082901001e-01</leafValues></_>
        <_>
          <internalNodes>
            0 -1 5 -3.4488429082557559e-04</internalNodes>
          <leafValues>
            8.5873043537139893e-01 -5.3481948375701904e-01</leafValues></_>
        <_>
          <internalNodes>
            0 -1 4 -2.6114302454516292e-04</internalNodes>
          <leafValues>
            6.0879403352737427e-01 -7.6105815172195435e-01</leafValues></_></weakClassifiers></_></stages>
  <features>
    <_>
      <rects>
        <_>
          11 2 12 14 -1.</_>
        <_>
          11 2 6 7 2.</_>
        <_>
          17 9 6 7 2.</_></rects>
      <tilted>0</tilted></_>
    <_>
      <rects>
        <_>
          12 0 7 8 -1.</_>
        <_>
          12 4 7 4 2.</_></rects>
      <tilted>0</tilted></_>
    <_>
      <rects>
        <_>
          12 0 14 8 -1.</_>
        <_>
          12 4 14 4 2.</_></rects>
      <tilted>0</tilted></_>
    <_>
      <rects>
        <_>
          14 6 2 2 -1.</_>
        <_>
          14 6 1 1 2.</_>
        <_>
          15 7 1 1 2.</_></rects>
      <tilted>0</tilted></_>
    <_>
      <rects>
        <_>
          15 7 1 2 -1.</_>
        <_>
          15 8 1 1 2.</_></rects>
      <tilted>0</tilted></_>
    <_>
      <rects>
        <_>
          21 8 2 4 -1.</_>
        <_>
          21 10 2 2 2.</_></rects>
      <tilted>0</tilted></_>
    <_>
      <rects>
        <_>
          28 0 4 9 -1.</_>
        <_>
          30 0 2 9 2.</_></rects>
      <tilted>0</tilted></_></features></cascade>
</opencv_storage>
