<?xml version="1.0"?>
<opencv_storage>
<cascade>
  <stageType>BOOST</stageType>
  <featureType>HAAR</featureType>
  <height>16</height>
  <width>32</width>
  <stageParams>
    <boostType>GAB</boostType>
    <minHitRate>9.5999997854232788e-01</minHitRate>
    <maxFalseAlarm>2.0000000298023224e-01</maxFalseAlarm>
    <weightTrimRate>6.4999997615814209e-01</weightTrimRate>
    <maxDepth>1</maxDepth>
    <maxWeakCount>80</maxWeakCount></stageParams>
  <featureParams>
    <maxCatCount>0</maxCatCount>
    <featSize>1</featSize>
    <mode>BASIC</mode></featureParams>
  <stageNum>2</stageNum>
  <stages>
    <!-- stage 0 -->
    <_>
      <maxWeakCount>2</maxWeakCount>
      <stageThreshold>-1.9566251337528229e-01</stageThreshold>
      <weakClassifiers>
        <_>
          <internalNodes>
            0 -1 3 -7.3876515030860901e-02</internalNodes>
          <leafValues>
            8.8421052694320679e-01 -8.0000001192092896e-01</leafValues></_>
        <_>
          <internalNodes>
            0 -1 1 3.5059776157140732e-02</internalNodes>
          <leafValues>
            -8.1846988201141357e-01 6.0433751344680786e-01</leafValues></_></weakClassifiers></_>
    <!-- stage 1 -->
    <_>
      <maxWeakCount>6</maxWeakCount>
      <stageThreshold>-3.4990027546882629e-02</stageThreshold>
      <weakClassifiers>
        <_>
          <internalNodes>
            0 -1 6 -2.6725235511548817e-04</internalNodes>
          <leafValues>
            6.0138052701950073e-01 -8.2877528667449951e-01</leafValues></_>
        <_>
          <internalNodes>
            0 -1 5 -5.3207892924547195e-03</internalNodes>
          <leafValues>
            8.2169693708419800e-01 -6.5020930767059326e-01</leafValues></_>
        <_>
          <internalNodes>
            0 -1 4 -2.1411649882793427e-02</internalNodes>
          <leafValues>
            4.1840910911560059e-01 -8.3486056327819824e-01</leafValues></_>
        <_>
          <internalNodes>
            0 -1 2 1.6426857560873032e-02</internalNodes>
          <leafValues>
            -4.8352411389350891e-01 8.3518308401107788e-01</leafValues></_>
        <_>
          <internalNodes>
            0 -1 0 -8.0361619591712952e-02</internalNodes>
          <leafValues>
            1. -7.2071367502212524e-01</leafValues></_>
        <_>
          <internalNodes>
            0 -1 7 -1.8686318071559072e-04</internalNodes>
          <leafValues>
            7.9966747760772705e-01 -5.5533516407012939e-01</leafValues></_></weakClassifiers></_></stages>
  <features>
    <_>
      <rects>
        <_>
          3 7 20 8 -1.</_>
        <_>
          13 7 10 8 2.</_></rects>
      <tilted>0</tilted></_>
    <_>
      <rects>
        <_>
          9 1 12 4 -1.</_>
        <_>
          15 1 6 4 2.</_></rects>
      <tilted>0</tilted></_>
    <_>
      <rects>
        <_>
          9 2 8 13 -1.</_>
        <_>
          13 2 4 13 2.</_></rects>
      <tilted>0</tilted></_>
    <_>
      <rects>
        <_>
          11 9 21 5 -1.</_>
        <_>
          18 9 7 5 3.</_></rects>
      <tilted>0</tilted></_>
    <_>
      <rects>
        <_>
          14 8 10 6 -1.</_>
        <_>
          14 11 10 3 2.</_></rects>
      <tilted>0</tilted></_>
    <_>
      <rects>
        <_>
          17 1 3 12 -1.</_>
        <_>
          17 7 3 6 2.</_></rects>
      <tilted>0</tilted></_>
    <_>
      <rects>
        <_>
          17 9 2 1 -1.</_>
        <_>
          18 9 1 1 2.</_></rects>
      <tilted>0</tilted></_>
    <_>
      <rects>
        <_>
          18 8 1 4 -1.</_>
        <_>
          18 10 1 2 2.</_></rects>
      <tilted>0</tilted></_></features></cascade>
</opencv_storage>
