<?xml version="1.0"?>
<opencv_storage>
<cascade>
  <stageType>BOOST</stageType>
  <featureType>HAAR</featureType>
  <height>16</height>
  <width>32</width>
  <stageParams>
    <boostType>GAB</boostType>
    <minHitRate>9.5999997854232788e-01</minHitRate>
    <maxFalseAlarm>2.0000000298023224e-01</maxFalseAlarm>
    <weightTrimRate>6.4999997615814209e-01</weightTrimRate>
    <maxDepth>1</maxDepth>
    <maxWeakCount>80</maxWeakCount></stageParams>
  <featureParams>
    <maxCatCount>0</maxCatCount>
    <featSize>1</featSize>
    <mode>BASIC</mode></featureParams>
  <stageNum>2</stageNum>
  <stages>
    <!-- stage 0 -->
    <_>
      <maxWeakCount>2</maxWeakCount>
      <stageThreshold>-1.0397074371576309e-01</stageThreshold>
      <weakClassifiers>
        <_>
          <internalNodes>
            0 -1 4 5.5393021553754807e-02</internalNodes>
          <leafValues>
            -8.8071572780609131e-01 8.9134806394577026e-01</leafValues></_>
        <_>
          <internalNodes>
            0 -1 3 1.0328311473131180e-01</internalNodes>
          <leafValues>
            -6.2096011638641357e-01 7.7674496173858643e-01</leafValues></_></weakClassifiers></_>
    <!-- stage 1 -->
    <_>
      <maxWeakCount>4</maxWeakCount>
      <stageThreshold>-1.4677919447422028e-01</stageThreshold>
      <weakClassifiers>
        <_>
          <internalNodes>
            0 -1 1 8.0118380486965179e-02</internalNodes>
          <leafValues>
            -7.9059827327728271e-01 6.9548875093460083e-01</leafValues></_>
        <_>
          <internalNodes>
            0 -1 5 1.1456997692584991e-01</internalNodes>
          <leafValues>
            -4.5970651507377625e-01 1.</leafValues></_>
        <_>
          <internalNodes>
            0 -1 2 -2.8603887767530978e-04</internalNodes>
          <leafValues>
            7.2570043802261353e-01 -7.6786404848098755e-01</leafValues></_>
        <_>
          <internalNodes>
            0 -1 0 1.5237289480865002e-03</internalNodes>
          <leafValues>
            -8.5272830724716187e-01 3.8530266284942627e-01</leafValues></_></weakClassifiers></_></stages>
  <features>
    <_>
      <rects>
        <_>
          1 8 10 3 -1.</_>
        <_>
          6 8 5 3 2.</_></rects>
      <tilted>0</tilted></_>
    <_>
      <rects>
        <_>
          12 0 7 10 -1.</_>
        <_>
          12 5 7 5 2.</_></rects>
      <tilted>0</tilted></_>
    <_>
      <rects>
        <_>
          12 1 12 3 -1.</_>
        <_>
          16 1 4 3 3.</_></rects>
      <tilted>0</tilted></_>
    <_>
      <rects>
        <_>
          13 0 9 12 -1.</_>
        <_>
          13 6 9 6 2.</_></rects>
      <tilted>0</tilted></_>
    <_>
      <rects>
        <_>
          15 0 4 12 -1.</_>
        <_>
          15 6 4 6 2.</_></rects>
      <tilted>0</tilted></_>
    <_>
      <rects>
        <_>
          15 0 9 14 -1.</_>
        <_>
          15 7 9 7 2.</_></rects>
      <tilted>0</tilted></_></features></cascade>
</opencv_storage>
