<?xml version="1.0"?>
<opencv_storage>
<cascade>
  <stageType>BOOST</stageType>
  <featureType>HAAR</featureType>
  <height>16</height>
  <width>32</width>
  <stageParams>
    <boostType>GAB</boostType>
    <minHitRate>9.5999997854232788e-01</minHitRate>
    <maxFalseAlarm>2.0000000298023224e-01</maxFalseAlarm>
    <weightTrimRate>6.4999997615814209e-01</weightTrimRate>
    <maxDepth>1</maxDepth>
    <maxWeakCount>80</maxWeakCount></stageParams>
  <featureParams>
    <maxCatCount>0</maxCatCount>
    <featSize>1</featSize>
    <mode>BASIC</mode></featureParams>
  <stageNum>2</stageNum>
  <stages>
    <!-- stage 0 -->
    <_>
      <maxWeakCount>2</maxWeakCount>
      <stageThreshold>-2.4806942790746689e-02</stageThreshold>
      <weakClassifiers>
        <_>
          <internalNodes>
            0 -1 1 7.1234308183193207e-02</internalNodes>
          <leafValues>
            -7.7625125646591187e-01 8.0632007122039795e-01</leafValues></_>
        <_>
          <internalNodes>
            0 -1 3 5.4941792041063309e-02</internalNodes>
          <leafValues>
            -7.4921834468841553e-01 7.5144428014755249e-01</leafValues></_></weakClassifiers></_>
    <!-- stage 1 -->
    <_>
      <maxWeakCount>5</maxWeakCount>
      <stageThreshold>1.0560943186283112e-01</stageThreshold>
      <weakClassifiers>
        <_>
          <internalNodes>
            0 -1 5 -7.3347315192222595e-03</internalNodes>
          <leafValues>
            -9.5555555820465088e-01 8.7429642677307129e-01</leafValues></_>
        <_>
          <internalNodes>
            0 -1 0 7.4773058295249939e-02</internalNodes>
          <leafValues>
            -6.3909322023391724e-01 8.0234998464584351e-01</leafValues></_>
        <_>
          <internalNodes>
            0 -1 4 5.9624703135341406e-04</internalNodes>
          <leafValues>
            -5.5095064640045166e-01 6.4574366807937622e-01</leafValues></_>
        <_>
          <internalNodes>
            0 -1 2 1.3114124536514282e-01</internalNodes>
          <leafValues>
            -5.0533115863800049e-01 9.3298017978668213e-01</leafValues></_>
        <_>
          <internalNodes>
            0 -1 6 -4.7691529616713524e-03</internalNodes>
          <leafValues>
            7.0064347982406616e-01 -5.1475518941879272e-01</leafValues></_></weakClassifiers></_></stages>
  <features>
    <_>
      <rects>
        <_>
          0 0 16 11 -1.</_>
        <_>
          8 0 8 11 2.</_></rects>
      <tilted>0</tilted></_>
    <_>
      <rects>
        <_>
          0 2 12 11 -1.</_>
        <_>
          6 2 6 11 2.</_></rects>
      <tilted>0</tilted></_>
    <_>
      <rects>
        <_>
          0 3 14 13 -1.</_>
        <_>
          7 3 7 13 2.</_></rects>
      <tilted>0</tilted></_>
    <_>
      <rects>
        <_>
          0 4 30 2 -1.</_>
        <_>
          15 4 15 2 2.</_></rects>
      <tilted>0</tilted></_>
    <_>
      <rects>
        <_>
          15 7 1 2 -1.</_>
        <_>
          15 8 1 1 2.</_></rects>
      <tilted>0</tilted></_>
    <_>
      <rects>
        <_>
          19 0 1 6 -1.</_>
        <_>
          19 3 1 3 2.</_></rects>
      <tilted>0</tilted></_>
    <_>
      <rects>
        <_>
          23 7 7 3 -1.</_>
        <_>
          23 8 7 1 3.</_></rects>
      <tilted>0</tilted></_></features></cascade>
</opencv_storage>
