<?xml version="1.0"?>
<opencv_storage>
<cascade>
  <stageType>BOOST</stageType>
  <featureType>HAAR</featureType>
  <height>16</height>
  <width>32</width>
  <stageParams>
    <boostType>GAB</boostType>
    <minHitRate>9.5999997854232788e-01</minHitRate>
    <maxFalseAlarm>2.0000000298023224e-01</maxFalseAlarm>
    <weightTrimRate>6.4999997615814209e-01</weightTrimRate>
    <maxDepth>1</maxDepth>
    <maxWeakCount>80</maxWeakCount></stageParams>
  <featureParams>
    <maxCatCount>0</maxCatCount>
    <featSize>1</featSize>
    <mode>BASIC</mode></featureParams>
  <stageNum>2</stageNum>
  <stages>
    <!-- stage 0 -->
    <_>
      <maxWeakCount>5</maxWeakCount>
      <stageThreshold>-1.3230742514133453e-01</stageThreshold>
      <weakClassifiers>
        <_>
          <internalNodes>
            0 -1 2 8.9926019310951233e-02</internalNodes>
          <leafValues>
            -7.1117705106735229e-01 7.2699695825576782e-01</leafValues></_>
        <_>
          <internalNodes>
            0 -1 7 5.1659531891345978e-02</internalNodes>
          <leafValues>
            -7.8943765163421631e-01 3.2702252268791199e-01</leafValues></_>
        <_>
          <internalNodes>
            0 -1 9 -5.3018610924482346e-04</internalNodes>
          <leafValues>
            7.1639376878738403e-01 -4.2247074842453003e-01</leafValues></_>
        <_>
          <internalNodes>
            0 -1 4 -4.5977003872394562e-02</internalNodes>
          <leafValues>
            -8.6753958463668823e-01 5.8742499351501465e-01</leafValues></_>
        <_>
          <internalNodes>
            0 -1 6 5.8465258916839957e-04</internalNodes>
          <leafValues>
            -8.7415152788162231e-01 8.6892858147621155e-02</leafValues></_></weakClassifiers></_>
    <!-- stage 1 -->
    <_>
      <maxWeakCount>8</maxWeakCount>
      <stageThreshold>-2.0092029124498367e-02</stageThreshold>
      <weakClassifiers>
        <_>
          <internalNodes>
            0 -1 0 2.2339411079883575e-02</internalNodes>
          <leafValues>
            -7.8338277339935303e-01 3.9819005131721497e-01</leafValues></_>
        <_>
          <internalNodes>
            0 -1 5 5.0511635839939117e-02</internalNodes>
          <leafValues>
            -4.1418126225471497e-01 6.9161832332611084e-01</leafValues></_>
        <_>
          <internalNodes>
            0 -1 12 -2.5515665765851736e-04</internalNodes>
          <leafValues>
            5.1533716917037964e-01 -6.5434342622756958e-01</leafValues></_>
        <_>
          <internalNodes>
            0 -1 1 5.9803528711199760e-04</internalNodes>
          <leafValues>
            -5.1692348718643188e-01 6.9331759214401245e-01</leafValues></_>
        <_>
          <internalNodes>
            0 -1 3 -2.2558057680726051e-03</internalNodes>
          <leafValues>
            6.5613257884979248e-01 -6.8447864055633545e-01</leafValues></_>
        <_>
          <internalNodes>
            0 -1 8 3.1148307607509196e-04</internalNodes>
          <leafValues>
            -4.5665156841278076e-01 6.6641640663146973e-01</leafValues></_>
        <_>
          <internalNodes>
            0 -1 10 -7.6224969234317541e-04</internalNodes>
          <leafValues>
            7.3776626586914062e-01 -5.9346896409988403e-01</leafValues></_>
        <_>
          <internalNodes>
            0 -1 11 4.0253013372421265e-02</internalNodes>
          <leafValues>
            -5.3734338283538818e-01 8.1734997034072876e-01</leafValues></_></weakClassifiers></_></stages>
  <features>
    <_>
      <rects>
        <_>
          2 0 14 7 -1.</_>
        <_>
          9 0 7 7 2.</_></rects>
      <tilted>0</tilted></_>
    <_>
      <rects>
        <_>
          4 0 14 2 -1.</_>
        <_>
          11 0 7 2 2.</_></rects>
      <tilted>0</tilted></_>
    <_>
      <rects>
        <_>
          4 0 21 13 -1.</_>
        <_>
          11 0 7 13 3.</_></rects>
      <tilted>0</tilted></_>
    <_>
      <rects>
        <_>
          5 2 2 11 -1.</_>
        <_>
          6 2 1 11 2.</_></rects>
      <tilted>0</tilted></_>
    <_>
      <rects>
        <_>
          6 7 26 9 -1.</_>
        <_>
          19 7 13 9 2.</_></rects>
      <tilted>0</tilted></_>
    <_>
      <rects>
        <_>
          13 0 9 14 -1.</_>
        <_>
          13 7 9 7 2.</_></rects>
      <tilted>0</tilted></_>
    <_>
      <rects>
        <_>
          15 7 1 2 -1.</_>
        <_>
          15 8 1 1 2.</_></rects>
      <tilted>0</tilted></_>
    <_>
      <rects>
        <_>
          16 4 6 12 -1.</_>
        <_>
          16 8 6 4 3.</_></rects>
      <tilted>0</tilted></_>
    <_>
      <rects>
        <_>
          16 6 3 2 -1.</_>
        <_>
          16 7 3 1 2.</_></rects>
      <tilted>0</tilted></_>
    <_>
      <rects>
        <_>
          16 14 4 2 -1.</_>
        <_>
          16 15 4 1 2.</_></rects>
      <tilted>0</tilted></_>
    <_>
      <rects>
        <_>
          18 4 14 1 -1.</_>
        <_>
          25 4 7 1 2.</_></rects>
      <tilted>0</tilted></_>
    <_>
      <rects>
        <_>
          21 0 4 10 -1.</_>
        <_>
          21 5 4 5 2.</_></rects>
      <tilted>0</tilted></_>
    <_>
      <rects>
        <_>
          21 10 1 2 -1.</_>
        <_>
          21 11 1 1 2.</_></rects>
      <tilted>0</tilted></_></features></cascade>
</opencv_storage>
