<?xml version="1.0"?>
<opencv_storage>
<cascade>
  <stageType>BOOST</stageType>
  <featureType>HAAR</featureType>
  <height>16</height>
  <width>32</width>
  <stageParams>
    <boostType>GAB</boostType>
    <minHitRate>9.4999998807907104e-01</minHitRate>
    <maxFalseAlarm>2.0000000298023224e-01</maxFalseAlarm>
    <weightTrimRate>3.4999999403953552e-01</weightTrimRate>
    <maxDepth>1</maxDepth>
    <maxWeakCount>80</maxWeakCount></stageParams>
  <featureParams>
    <maxCatCount>0</maxCatCount>
    <featSize>1</featSize>
    <mode>BASIC</mode></featureParams>
  <stageNum>1</stageNum>
  <stages>
    <!-- stage 0 -->
    <_>
      <maxWeakCount>2</maxWeakCount>
      <stageThreshold>-8.4264986217021942e-02</stageThreshold>
      <weakClassifiers>
        <_>
          <internalNodes>
            0 -1 1 2.4598380923271179e-01</internalNodes>
          <leafValues>
            -9.6003526449203491e-01 8.1569963693618774e-01</leafValues></_>
        <_>
          <internalNodes>
            0 -1 0 -1.3956826878711581e-03</internalNodes>
          <leafValues>
            1. -8.9996463060379028e-01</leafValues></_></weakClassifiers></_></stages>
  <features>
    <_>
      <rects>
        <_>
          10 14 21 2 -1.</_>
        <_>
          10 15 21 1 2.</_></rects>
      <tilted>0</tilted></_>
    <_>
      <rects>
        <_>
          15 0 12 12 -1.</_>
        <_>
          15 6 12 6 2.</_></rects>
      <tilted>0</tilted></_></features></cascade>
</opencv_storage>
