<?xml version="1.0"?>
<opencv_storage>
<cascade>
  <stageType>BOOST</stageType>
  <featureType>HAAR</featureType>
  <height>16</height>
  <width>32</width>
  <stageParams>
    <boostType>GAB</boostType>
    <minHitRate>9.5999997854232788e-01</minHitRate>
    <maxFalseAlarm>2.0000000298023224e-01</maxFalseAlarm>
    <weightTrimRate>6.4999997615814209e-01</weightTrimRate>
    <maxDepth>1</maxDepth>
    <maxWeakCount>80</maxWeakCount></stageParams>
  <featureParams>
    <maxCatCount>0</maxCatCount>
    <featSize>1</featSize>
    <mode>BASIC</mode></featureParams>
  <stageNum>2</stageNum>
  <stages>
    <!-- stage 0 -->
    <_>
      <maxWeakCount>3</maxWeakCount>
      <stageThreshold>4.6551460027694702e-01</stageThreshold>
      <weakClassifiers>
        <_>
          <internalNodes>
            0 -1 1 -6.3201591372489929e-02</internalNodes>
          <leafValues>
            9.2783504724502563e-01 -8.7378638982772827e-01</leafValues></_>
        <_>
          <internalNodes>
            0 -1 4 -4.3631158769130707e-04</internalNodes>
          <leafValues>
            6.5666544437408447e-01 -9.9793446063995361e-01</leafValues></_>
        <_>
          <internalNodes>
            0 -1 0 6.5065277740359306e-03</internalNodes>
          <leafValues>
            -7.3529791831970215e-01 6.8263554573059082e-01</leafValues></_></weakClassifiers></_>
    <!-- stage 1 -->
    <_>
      <maxWeakCount>4</maxWeakCount>
      <stageThreshold>-5.2914014086127281e-03</stageThreshold>
      <weakClassifiers>
        <_>
          <internalNodes>
            0 -1 3 -3.9511822164058685e-02</internalNodes>
          <leafValues>
            7.9649889469146729e-01 -6.7034989595413208e-01</leafValues></_>
        <_>
          <internalNodes>
            0 -1 5 4.4851325219497085e-04</internalNodes>
          <leafValues>
            -8.0138564109802246e-01 4.7295042872428894e-01</leafValues></_>
        <_>
          <internalNodes>
            0 -1 2 1.4670025557279587e-02</internalNodes>
          <leafValues>
            -5.8667457103729248e-01 1.</leafValues></_>
        <_>
          <internalNodes>
            0 -1 6 7.3826141655445099e-02</internalNodes>
          <leafValues>
            -8.0789190530776978e-01 7.8779977560043335e-01</leafValues></_></weakClassifiers></_></stages>
  <features>
    <_>
      <rects>
        <_>
          0 10 10 1 -1.</_>
        <_>
          5 10 5 1 2.</_></rects>
      <tilted>0</tilted></_>
    <_>
      <rects>
        <_>
          12 8 15 3 -1.</_>
        <_>
          17 8 5 3 3.</_></rects>
      <tilted>0</tilted></_>
    <_>
      <rects>
        <_>
          13 7 16 6 -1.</_>
        <_>
          21 7 8 6 2.</_></rects>
      <tilted>0</tilted></_>
    <_>
      <rects>
        <_>
          13 8 8 4 -1.</_>
        <_>
          17 8 4 4 2.</_></rects>
      <tilted>0</tilted></_>
    <_>
      <rects>
        <_>
          16 8 2 1 -1.</_>
        <_>
          17 8 1 1 2.</_></rects>
      <tilted>0</tilted></_>
    <_>
      <rects>
        <_>
          17 9 3 4 -1.</_>
        <_>
          17 11 3 2 2.</_></rects>
      <tilted>0</tilted></_>
    <_>
      <rects>
        <_>
          19 0 7 10 -1.</_>
        <_>
          19 5 7 5 2.</_></rects>
      <tilted>0</tilted></_></features></cascade>
</opencv_storage>
