<?xml version="1.0"?>
<opencv_storage>
<cascade>
  <stageType>BOOST</stageType>
  <featureType>HAAR</featureType>
  <height>16</height>
  <width>32</width>
  <stageParams>
    <boostType>GAB</boostType>
    <minHitRate>9.5999997854232788e-01</minHitRate>
    <maxFalseAlarm>2.0000000298023224e-01</maxFalseAlarm>
    <weightTrimRate>6.4999997615814209e-01</weightTrimRate>
    <maxDepth>1</maxDepth>
    <maxWeakCount>80</maxWeakCount></stageParams>
  <featureParams>
    <maxCatCount>0</maxCatCount>
    <featSize>1</featSize>
    <mode>BASIC</mode></featureParams>
  <stageNum>2</stageNum>
  <stages>
    <!-- stage 0 -->
    <_>
      <maxWeakCount>2</maxWeakCount>
      <stageThreshold>-2.4270261824131012e-01</stageThreshold>
      <weakClassifiers>
        <_>
          <internalNodes>
            0 -1 3 -8.9919015765190125e-02</internalNodes>
          <leafValues>
            8.4851586818695068e-01 -8.1036168336868286e-01</leafValues></_>
        <_>
          <internalNodes>
            0 -1 0 -9.3313276767730713e-02</internalNodes>
          <leafValues>
            5.6765908002853394e-01 -7.3023641109466553e-01</leafValues></_></weakClassifiers></_>
    <!-- stage 1 -->
    <_>
      <maxWeakCount>4</maxWeakCount>
      <stageThreshold>2.1906755864620209e-02</stageThreshold>
      <weakClassifiers>
        <_>
          <internalNodes>
            0 -1 2 -1.0109297931194305e-02</internalNodes>
          <leafValues>
            7.6754385232925415e-01 -6.4338237047195435e-01</leafValues></_>
        <_>
          <internalNodes>
            0 -1 4 -6.2137413769960403e-02</internalNodes>
          <leafValues>
            7.0885860919952393e-01 -6.6328060626983643e-01</leafValues></_>
        <_>
          <internalNodes>
            0 -1 1 -1.5272592194378376e-02</internalNodes>
          <leafValues>
            -8.8002061843872070e-01 7.6384532451629639e-01</leafValues></_>
        <_>
          <internalNodes>
            0 -1 5 -1.1543255299329758e-01</internalNodes>
          <leafValues>
            9.3138259649276733e-01 -8.0741477012634277e-01</leafValues></_></weakClassifiers></_></stages>
  <features>
    <_>
      <rects>
        <_>
          3 4 12 12 -1.</_>
        <_>
          3 10 12 6 2.</_></rects>
      <tilted>0</tilted></_>
    <_>
      <rects>
        <_>
          6 1 10 6 -1.</_>
        <_>
          11 1 5 6 2.</_></rects>
      <tilted>0</tilted></_>
    <_>
      <rects>
        <_>
          17 10 10 1 -1.</_>
        <_>
          22 10 5 1 2.</_></rects>
      <tilted>0</tilted></_>
    <_>
      <rects>
        <_>
          19 3 12 13 -1.</_>
        <_>
          23 3 4 13 3.</_></rects>
      <tilted>0</tilted></_>
    <_>
      <rects>
        <_>
          21 1 11 14 -1.</_>
        <_>
          21 8 11 7 2.</_></rects>
      <tilted>0</tilted></_>
    <_>
      <rects>
        <_>
          22 3 9 11 -1.</_>
        <_>
          25 3 3 11 3.</_></rects>
      <tilted>0</tilted></_></features></cascade>
</opencv_storage>
