<?xml version="1.0"?>
<opencv_storage>
<cascade>
  <stageType>BOOST</stageType>
  <featureType>HAAR</featureType>
  <height>16</height>
  <width>32</width>
  <stageParams>
    <boostType>GAB</boostType>
    <minHitRate>9.4999998807907104e-01</minHitRate>
    <maxFalseAlarm>2.0000000298023224e-01</maxFalseAlarm>
    <weightTrimRate>3.4999999403953552e-01</weightTrimRate>
    <maxDepth>1</maxDepth>
    <maxWeakCount>80</maxWeakCount></stageParams>
  <featureParams>
    <maxCatCount>0</maxCatCount>
    <featSize>1</featSize>
    <mode>BASIC</mode></featureParams>
  <stageNum>1</stageNum>
  <stages>
    <!-- stage 0 -->
    <_>
      <maxWeakCount>2</maxWeakCount>
      <stageThreshold>-6.2006700038909912e-01</stageThreshold>
      <weakClassifiers>
        <_>
          <internalNodes>
            0 -1 0 1.8218298256397247e-01</internalNodes>
          <leafValues>
            -9.7208821773529053e-01 3.0402010679244995e-01</leafValues></_>
        <_>
          <internalNodes>
            0 -1 1 -8.0376088619232178e-02</internalNodes>
          <leafValues>
            3.5202118754386902e-01 -9.0026861429214478e-01</leafValues></_></weakClassifiers></_></stages>
  <features>
    <_>
      <rects>
        <_>
          11 0 5 15 -1.</_>
        <_>
          11 5 5 5 3.</_></rects>
      <tilted>0</tilted></_>
    <_>
      <rects>
        <_>
          12 0 12 9 -1.</_>
        <_>
          16 0 4 9 3.</_></rects>
      <tilted>0</tilted></_></features></cascade>
</opencv_storage>
