<?xml version="1.0"?>
<opencv_storage>
<cascade>
  <stageType>BOOST</stageType>
  <featureType>HAAR</featureType>
  <height>16</height>
  <width>32</width>
  <stageParams>
    <boostType>GAB</boostType>
    <minHitRate>9.5999997854232788e-01</minHitRate>
    <maxFalseAlarm>2.0000000298023224e-01</maxFalseAlarm>
    <weightTrimRate>6.4999997615814209e-01</weightTrimRate>
    <maxDepth>1</maxDepth>
    <maxWeakCount>80</maxWeakCount></stageParams>
  <featureParams>
    <maxCatCount>0</maxCatCount>
    <featSize>1</featSize>
    <mode>BASIC</mode></featureParams>
  <stageNum>2</stageNum>
  <stages>
    <!-- stage 0 -->
    <_>
      <maxWeakCount>2</maxWeakCount>
      <stageThreshold>-3.2091629505157471e-01</stageThreshold>
      <weakClassifiers>
        <_>
          <internalNodes>
            0 -1 3 2.1350666880607605e-01</internalNodes>
          <leafValues>
            -7.8532111644744873e-01 9.4065934419631958e-01</leafValues></_>
        <_>
          <internalNodes>
            0 -1 5 -5.7738239411264658e-04</internalNodes>
          <leafValues>
            4.6440479159355164e-01 -8.8429969549179077e-01</leafValues></_></weakClassifiers></_>
    <!-- stage 1 -->
    <_>
      <maxWeakCount>4</maxWeakCount>
      <stageThreshold>-2.5331753492355347e-01</stageThreshold>
      <weakClassifiers>
        <_>
          <internalNodes>
            0 -1 2 1.2421278655529022e-01</internalNodes>
          <leafValues>
            -7.9624134302139282e-01 8.1395345926284790e-01</leafValues></_>
        <_>
          <internalNodes>
            0 -1 1 2.1621873974800110e-01</internalNodes>
          <leafValues>
            -7.1703493595123291e-01 8.3286428451538086e-01</leafValues></_>
        <_>
          <internalNodes>
            0 -1 4 -5.7389541325392202e-05</internalNodes>
          <leafValues>
            8.6044859886169434e-01 -6.7554390430450439e-01</leafValues></_>
        <_>
          <internalNodes>
            0 -1 0 9.0069482102990150e-03</internalNodes>
          <leafValues>
            -8.8109529018402100e-01 3.9951011538505554e-01</leafValues></_></weakClassifiers></_></stages>
  <features>
    <_>
      <rects>
        <_>
          4 0 4 6 -1.</_>
        <_>
          4 0 2 3 2.</_>
        <_>
          6 3 2 3 2.</_></rects>
      <tilted>0</tilted></_>
    <_>
      <rects>
        <_>
          9 0 20 16 -1.</_>
        <_>
          9 8 20 8 2.</_></rects>
      <tilted>0</tilted></_>
    <_>
      <rects>
        <_>
          10 0 12 10 -1.</_>
        <_>
          10 5 12 5 2.</_></rects>
      <tilted>0</tilted></_>
    <_>
      <rects>
        <_>
          10 0 17 12 -1.</_>
        <_>
          10 6 17 6 2.</_></rects>
      <tilted>0</tilted></_>
    <_>
      <rects>
        <_>
          10 10 8 1 -1.</_>
        <_>
          14 10 4 1 2.</_></rects>
      <tilted>0</tilted></_>
    <_>
      <rects>
        <_>
          15 7 2 2 -1.</_>
        <_>
          15 7 1 1 2.</_>
        <_>
          16 8 1 1 2.</_></rects>
      <tilted>0</tilted></_></features></cascade>
</opencv_storage>
