<?xml version="1.0"?>
<opencv_storage>
<cascade>
  <stageType>BOOST</stageType>
  <featureType>HAAR</featureType>
  <height>16</height>
  <width>32</width>
  <stageParams>
    <boostType>GAB</boostType>
    <minHitRate>9.5999997854232788e-01</minHitRate>
    <maxFalseAlarm>2.0000000298023224e-01</maxFalseAlarm>
    <weightTrimRate>6.4999997615814209e-01</weightTrimRate>
    <maxDepth>1</maxDepth>
    <maxWeakCount>80</maxWeakCount></stageParams>
  <featureParams>
    <maxCatCount>0</maxCatCount>
    <featSize>1</featSize>
    <mode>BASIC</mode></featureParams>
  <stageNum>2</stageNum>
  <stages>
    <!-- stage 0 -->
    <_>
      <maxWeakCount>5</maxWeakCount>
      <stageThreshold>3.9321264624595642e-01</stageThreshold>
      <weakClassifiers>
        <_>
          <internalNodes>
            0 -1 3 -1.0129886120557785e-01</internalNodes>
          <leafValues>
            8.2470118999481201e-01 -8.3132529258728027e-01</leafValues></_>
        <_>
          <internalNodes>
            0 -1 4 -1.2530623935163021e-03</internalNodes>
          <leafValues>
            7.9564380645751953e-01 -6.0966181755065918e-01</leafValues></_>
        <_>
          <internalNodes>
            0 -1 5 -4.8077687621116638e-02</internalNodes>
          <leafValues>
            6.5858960151672363e-01 -8.2351529598236084e-01</leafValues></_>
        <_>
          <internalNodes>
            0 -1 0 -2.8451581019908190e-03</internalNodes>
          <leafValues>
            -9.7038388252258301e-01 8.0945920944213867e-01</leafValues></_>
        <_>
          <internalNodes>
            0 -1 6 3.9910338819026947e-03</internalNodes>
          <leafValues>
            -8.4364211559295654e-01 4.4295024871826172e-01</leafValues></_></weakClassifiers></_>
    <!-- stage 1 -->
    <_>
      <maxWeakCount>2</maxWeakCount>
      <stageThreshold>-5.7312089949846268e-02</stageThreshold>
      <weakClassifiers>
        <_>
          <internalNodes>
            0 -1 1 -1.8769899383187294e-02</internalNodes>
          <leafValues>
            8.1132078170776367e-01 -6.6515016555786133e-01</leafValues></_>
        <_>
          <internalNodes>
            0 -1 2 -7.0872413925826550e-04</internalNodes>
          <leafValues>
            6.0783803462982178e-01 -7.8836250305175781e-01</leafValues></_></weakClassifiers></_></stages>
  <features>
    <_>
      <rects>
        <_>
          1 5 4 7 -1.</_>
        <_>
          3 5 2 7 2.</_></rects>
      <tilted>0</tilted></_>
    <_>
      <rects>
        <_>
          8 9 12 1 -1.</_>
        <_>
          12 9 4 1 3.</_></rects>
      <tilted>0</tilted></_>
    <_>
      <rects>
        <_>
          11 10 4 2 -1.</_>
        <_>
          13 10 2 2 2.</_></rects>
      <tilted>0</tilted></_>
    <_>
      <rects>
        <_>
          17 4 9 12 -1.</_>
        <_>
          20 4 3 12 3.</_></rects>
      <tilted>0</tilted></_>
    <_>
      <rects>
        <_>
          17 8 8 2 -1.</_>
        <_>
          21 8 4 2 2.</_></rects>
      <tilted>0</tilted></_>
    <_>
      <rects>
        <_>
          20 4 6 5 -1.</_>
        <_>
          22 4 2 5 3.</_></rects>
      <tilted>0</tilted></_>
    <_>
      <rects>
        <_>
          20 8 4 2 -1.</_>
        <_>
          22 8 2 2 2.</_></rects>
      <tilted>0</tilted></_></features></cascade>
</opencv_storage>
